name = ukwho
year = 1990-2006
yname = weight
sex = male
distribution = LMS
citation = British 1990 reference data, reanalysed 2009
publication = UK-WHO
[data]
X               L       M       S		
-0.33	        1.15	0.61	0.16
-0.31	        1.13	0.71	0.16
-0.29	        1.10	0.82	0.17
-0.27	        1.08	0.92	0.17
-0.25	        1.06	1.04	0.17
-0.23	        1.04	1.16	0.18
-0.21	        1.02	1.29	0.18
-0.19	        1.00	1.44	0.18
-0.17	        0.98	1.61	0.18
-0.15	        0.95	1.80	0.18
-0.13	        0.93	2.02	0.18
-0.11	        0.91	2.25	0.17
-0.10	        0.89	2.49	0.17
-0.08	        0.87	2.73	0.16
-0.06	        0.85	2.96	0.15
-0.04	        0.83	3.18	0.14
-0.02	        0.80	3.38	0.13
0	            0.78	3.56	0.13
0.02	        0.76	3.72	0.12
0.04	        0.74	3.87	0.12
0.04	        0.26	3.75	0.14
0.06	        0.24	4.06	0.14
0.08	        0.23	4.37	0.13
0.08	        0.23	4.47	0.13
0.10	        0.22	4.66	0.13
0.11	        0.22	4.93	0.13
0.13	        0.21	5.18	0.13
0.15	        0.20	5.41	0.13
0.17	        0.20	5.57	0.12
0.17	        0.20	5.63	0.12
0.19	        0.19	5.83	0.12
0.21	        0.18	6.02	0.12
0.23	        0.18	6.20	0.12
0.25	        0.17	6.37	0.12
0.25	        0.17	6.38	0.12
0.33	        0.16	7.00	0.11
0.42	        0.14	7.51	0.11
0.50	        0.13	7.93	0.11
0.58	        0.11	8.30	0.11
0.67	        0.10	8.62	0.11
0.75	        0.09	8.90	0.11
0.83	        0.08	9.16	0.11
0.92	        0.07	9.41	0.11
1	            0.06	9.65	0.11
1.08	        0.06	9.87	0.11
1.17	        0.05	10.10	0.11
1.25	        0.04	10.31	0.11
1.33	        0.03	10.52	0.11
1.42	        0.03	10.73	0.11
1.50	        0.02	10.94	0.11
1.58	        0.01	11.14	0.11
1.67	        0.01	11.35	0.11
1.75	        0.00	11.55	0.11
1.83	        0.00	11.75	0.11
1.92	        -0.01	11.95	0.11
2	            -0.01	12.15	0.11
2	            -0.01	12.15	0.11
2.08	        -0.02	12.35	0.11
2.17	        -0.02	12.55	0.12
2.25	        -0.03	12.74	0.12
2.33	        -0.03	12.93	0.12
2.42	        -0.04	13.12	0.12
2.50	        -0.04	13.30	0.12
2.58	        -0.05	13.48	0.12
2.67	        -0.05	13.66	0.12
2.75	        -0.06	13.83	0.12
2.83	        -0.06	14.00	0.12
2.92	        -0.06	14.17	0.12
3	            -0.07	14.34	0.12
3.08	        -0.07	14.51	0.12
3.17	        -0.08	14.68	0.12
3.25	        -0.08	14.85	0.12
3.33	        -0.08	15.01	0.12
3.42	        -0.09	15.18	0.12
3.50	        -0.09	15.35	0.12
3.58	        -0.10	15.52	0.12
3.67	        -0.10	15.68	0.13
3.75	        -0.10	15.85	0.13
3.83	        -0.11	16.02	0.13
3.92	        -0.11	16.18	0.13
4	            -0.11	16.35	0.13
4	            -0.43	16.55	0.12
4.08	        -0.44	16.71	0.12
4.17	        -0.45	16.87	0.12
4.25	        -0.46	17.03	0.12
4.33	        -0.47	17.20	0.12
4.42	        -0.48	17.37	0.12
4.50	        -0.49	17.55	0.12
4.58	        -0.51	17.73	0.12
4.67	        -0.52	17.90	0.12
4.75	        -0.53	18.09	0.12
4.83	        -0.54	18.27	0.12
4.92	        -0.56	18.45	0.12
5	            -0.57	18.63	0.12
5.08	        -0.58	18.81	0.12
5.17	        -0.59	18.99	0.12
5.25	        -0.60	19.17	0.12
5.33	        -0.62	19.35	0.12
5.42	        -0.63	19.53	0.12
5.50	        -0.64	19.70	0.12
5.58	        -0.65	19.88	0.12
5.67	        -0.66	20.05	0.12
5.75	        -0.68	20.23	0.13
5.83	        -0.69	20.41	0.13
5.92	        -0.70	20.59	0.13
6	            -0.71	20.77	0.13
6.08	        -0.72	20.95	0.13
6.17	        -0.74	21.13	0.13
6.25	        -0.75	21.31	0.13
6.33	        -0.76	21.50	0.13
6.42	        -0.77	21.68	0.13
6.50	        -0.79	21.87	0.13
6.58	        -0.80	22.06	0.13
6.67	        -0.81	22.25	0.13
6.75	        -0.82	22.45	0.13
6.83	        -0.84	22.65	0.13
6.92	        -0.85	22.85	0.13
7	            -0.86	23.05	0.14
7.08	        -0.87	23.26	0.14
7.17	        -0.89	23.47	0.14
7.25	        -0.90	23.68	0.14
7.33	        -0.91	23.89	0.14
7.42	        -0.93	24.10	0.14
7.50	        -0.94	24.31	0.14
7.58	        -0.95	24.53	0.14
7.67	        -0.96	24.75	0.14
7.75	        -0.97	24.97	0.14
7.83	        -0.98	25.18	0.14
7.92	        -0.99	25.41	0.14
8	            -1.01	25.63	0.15
8.08	        -1.02	25.86	0.15
8.17	        -1.02	26.08	0.15
8.25	        -1.03	26.31	0.15
8.33	        -1.04	26.54	0.15
8.42	        -1.05	26.77	0.15
8.50	        -1.06	27.00	0.15
8.58	        -1.07	27.23	0.15
8.67	        -1.07	27.46	0.15
8.75	        -1.08	27.69	0.15
8.83	        -1.08	27.92	0.15
8.92	        -1.09	28.16	0.15
9	            -1.09	28.39	0.16
9.08	        -1.10	28.63	0.16
9.17	        -1.10	28.86	0.16
9.25	        -1.10	29.10	0.16
9.33	        -1.10	29.34	0.16
9.42	        -1.10	29.59	0.16
9.50	        -1.11	29.83	0.16
9.58	        -1.11	30.07	0.16
9.67	        -1.10	30.32	0.16
9.75	        -1.10	30.57	0.16
9.83	        -1.10	30.83	0.16
9.92	        -1.10	31.09	0.16
10	            -1.10	31.35	0.16
10.08	        -1.09	31.62	0.16
10.17	        -1.09	31.88	0.16
10.25	        -1.09	32.15	0.17
10.33	        -1.08	32.42	0.17
10.42	        -1.07	32.69	0.17
10.50	        -1.07	32.96	0.17
10.58	        -1.06	33.23	0.17
10.67	        -1.05	33.50	0.17
10.75	        -1.05	33.77	0.17
10.83	        -1.04	34.04	0.17
10.92	        -1.03	34.31	0.17
11	            -1.02	34.59	0.17
11.08	        -1.01	34.86	0.17
11.17	        -1.00	35.13	0.17
11.25	        -0.99	35.41	0.17
11.33	        -0.97	35.68	0.17
11.42	        -0.96	35.96	0.17
11.50	        -0.95	36.25	0.17
11.58	        -0.93	36.54	0.17
11.67	        -0.92	36.84	0.18
11.75	        -0.90	37.15	0.18
11.83	        -0.89	37.46	0.18
11.92	        -0.87	37.79	0.18
12	            -0.85	38.12	0.18
12.08	        -0.83	38.47	0.18
12.17	        -0.82	38.82	0.18
12.25	        -0.80	39.19	0.18
12.33	        -0.78	39.56	0.18
12.42	        -0.76	39.95	0.18
12.50	        -0.73	40.35	0.18
12.58	        -0.71	40.76	0.18
12.67	        -0.69	41.18	0.18
12.75	        -0.67	41.61	0.18
12.83	        -0.65	42.05	0.18
12.92	        -0.62	42.51	0.18
13	            -0.60	42.97	0.18
13.08	        -0.58	43.45	0.18
13.17	        -0.55	43.93	0.18
13.25	        -0.53	44.43	0.18
13.33	        -0.51	44.93	0.18
13.42	        -0.49	45.44	0.18
13.50	        -0.46	45.96	0.18
13.58	        -0.44	46.49	0.18
13.67	        -0.42	47.02	0.18
13.75	        -0.40	47.55	0.18
13.83	        -0.38	48.08	0.18
13.92	        -0.37	48.62	0.18
14	            -0.35	49.15	0.18
14.08	        -0.34	49.69	0.18
14.17	        -0.32	50.23	0.18
14.25	        -0.31	50.76	0.18
14.33	        -0.30	51.29	0.18
14.42	        -0.29	51.82	0.18
14.50	        -0.28	52.34	0.18
14.58	        -0.28	52.86	0.18
14.67	        -0.27	53.38	0.18
14.75	        -0.27	53.88	0.18
14.83	        -0.26	54.39	0.18
14.92	        -0.26	54.88	0.18
15	            -0.26	55.37	0.18
15.08	        -0.27	55.85	0.18
15.17	        -0.27	56.32	0.18
15.25	        -0.27	56.79	0.18
15.33	        -0.28	57.25	0.17
15.42	        -0.28	57.70	0.17
15.50	        -0.29	58.14	0.17
15.58	        -0.30	58.57	0.17
15.67	        -0.31	58.99	0.17
15.75	        -0.32	59.41	0.17
15.83	        -0.33	59.81	0.17
15.92	        -0.34	60.20	0.16
16	            -0.35	60.59	0.16
16.08	        -0.36	60.96	0.16
16.17	        -0.38	61.32	0.16
16.25	        -0.39	61.67	0.16
16.33	        -0.40	62.01	0.16
16.42	        -0.41	62.33	0.16
16.50	        -0.42	62.65	0.15
16.58	        -0.43	62.95	0.15
16.67	        -0.45	63.25	0.15
16.75	        -0.46	63.53	0.15
16.83	        -0.47	63.81	0.15
16.92	        -0.48	64.07	0.15
17	            -0.49	64.33	0.15
17.08	        -0.50	64.58	0.15
17.17	        -0.51	64.82	0.14
17.25	        -0.52	65.05	0.14
17.33	        -0.53	65.28	0.14
17.42	        -0.54	65.49	0.14
17.50	        -0.55	65.70	0.14
17.58	        -0.56	65.91	0.14
17.67	        -0.57	66.10	0.14
17.75	        -0.58	66.29	0.14
17.83	        -0.58	66.48	0.14
17.92	        -0.59	66.65	0.14
18	            -0.60	66.82	0.14
18.08	        -0.61	66.99	0.14
18.17	        -0.61	67.15	0.14
18.25	        -0.62	67.30	0.14
18.33	        -0.63	67.45	0.14
18.42	        -0.63	67.59	0.14
18.50	        -0.64	67.73	0.14
18.58	        -0.65	67.86	0.13
18.67	        -0.65	67.99	0.13
18.75	        -0.66	68.11	0.13
18.83	        -0.66	68.23	0.13
18.92	        -0.67	68.34	0.13
19	            -0.67	68.45	0.13
19.08	        -0.68	68.56	0.13
19.17	        -0.68	68.66	0.13
19.25	        -0.69	68.76	0.13
19.33	        -0.69	68.86	0.13
19.42	        -0.69	68.95	0.13
19.50	        -0.70	69.04	0.13
19.58	        -0.70	69.12	0.13
19.67	        -0.70	69.21	0.13
19.75	        -0.71	69.29	0.13
19.83	        -0.71	69.37	0.13
19.92	        -0.71	69.45	0.13
20	            -0.72	69.52	0.13